{"learner":{"attributes":{"best_iteration":"19","best_ntree_limit":"20","scikit_learn":"{\"use_label_encoder\": false, \"n_estimators\": 20, \"objective\": \"binary:logistic\", \"max_depth\": 3, \"max_leaves\": null, \"max_bin\": null, \"grow_policy\": null, \"learning_rate\": 0.2, \"verbosity\": 1, \"booster\": null, \"tree_method\": \"hist\", \"gamma\": null, \"min_child_weight\": null, \"max_delta_step\": null, \"subsample\": null, \"sampling_method\": null, \"colsample_bytree\": null, \"colsample_bylevel\": null, \"colsample_bynode\": null, \"reg_alpha\": null, \"reg_lambda\": null, \"scale_pos_weight\": null, \"base_score\": null, \"missing\": NaN, \"num_parallel_tree\": null, \"random_state\": null, \"n_jobs\": null, \"monotone_constraints\": null, \"interaction_constraints\": null, \"importance_type\": null, \"gpu_id\": null, \"validate_parameters\": null, \"predictor\": null, \"enable_categorical\": false, \"max_cat_to_onehot\": null, \"eval_metric\": null, \"early_stopping_rounds\": null, \"callbacks\": null, \"classes_\": [0, 1], \"n_classes_\": 2, \"evals_result_\": {\"validation_0\": {\"logloss\": [0.5705029838442802, 0.48944988031685355, 0.4272587682366371, 0.38211246734857557, 0.34931646418869494, 0.32239630525261165, 0.29620008021444083, 0.2786912841141224, 0.2613315280199051, 0.2502353208988905, 0.24012559982798995, 0.23271190452836454, 0.22679318005926907, 0.22080943655632437, 0.21671750493459405, 0.21081020568236708, 0.20629126062449069, 0.20225751828271896, 0.19999495006725193, 0.19766067739129067]}}, \"_estimator_type\": \"classifier\"}"},"feature_names":[],"feature_types":[],"gradient_booster":{"model":{"gbtree_model_param":{"num_parallel_tree":"1","num_trees":"20","size_leaf_vector":"0"},"tree_info":[0,0,0,0,0,0,0,0,0,0,0,0,0,0,0,0,0,0,0,0],"trees":[{"base_weights":[-0E0,-1.5818557E0,1.4873983E0,-1.7424242E0,-4.952381E-1,5.983702E-1,1.6634905E0,-3.697161E-1,-2.835539E-1,2.5695933E-3,-3.8083833E-1,-3.5609755E-1,2.3061517E-1,2.7947676E-1,3.8851675E-1],"categories":[],"categories_nodes":[],"categories_segments":[],"categories_sizes":[],"default_left":[0,0,0,0,0,0,0,0,0,0,0,0,0,0,0],"id":0,"left_children":[1,3,5,7,9,11,13,-1,-1,-1,-1,-1,-1,-1,-1],"loss_changes":[5.886829E3,2.1068994E2,2.008772E2,3.3773438E1,1.1277394E2,2.854298E2,7.717993E1,0E0,0E0,0E0,0E0,0E0,0E0,0E0,0E0],"parents":[2147483647,0,0,1,1,2,2,3,3,4,4,5,5,6,6],"right_children":[2,4,6,8,10,12,14,-1,-1,-1,-1,-1,-1,-1,-1],"split_conditions":[-6.8748176E-2,-3.9204988E-1,3.3570737E-1,-8.023934E-1,9.776391E-1,-7.8370976E-1,2.660335E-1,-3.697161E-1,-2.835539E-1,2.5695933E-3,-3.8083833E-1,-3.5609755E-1,2.3061517E-1,2.7947676E-1,3.8851675E-1],"split_indices":[0,0,0,0,3,3,3,0,0,0,0,0,0,0,0],"split_type":[0,0,0,0,0,0,0,0,0,0,0,0,0,0,0],"sum_hessian":[2.5E3,1.2115E3,1.2885E3,1.055E3,1.565E2,2.1375E2,1.07475E3,7.915E2,2.635E2,1.1575E2,4.075E1,4E1,1.7375E2,5.5325E2,5.215E2],"tree_param":{"num_deleted":"0","num_feature":"5","num_nodes":"15","size_leaf_vector":"0"}},{"base_weights":[-3.7851205E-4,-1.3052547E0,1.2247975E0,-1.4896978E0,-6.234891E-1,-1.6537644E0,1.2709188E0,-3.0095825E-1,-2.3421103E-2,-1.8202825E-2,-3.176554E-1,-3.7346333E-1,8.054478E-2,2.866828E-1,1.2982784E-1],"categories":[],"categories_nodes":[],"categories_segments":[],"categories_sizes":[],"default_left":[0,0,0,0,0,0,0,0,0,0,0,0,0,0,0],"id":1,"left_children":[1,3,5,7,9,11,13,-1,-1,-1,-1,-1,-1,-1,-1],"loss_changes":[3.893637E3,1.4737549E2,1.6886707E2,1.904004E1,1.297502E2,9.642094E0,1.2403772E2,0E0,0E0,0E0,0E0,0E0,0E0,0E0,0E0],"parents":[2147483647,0,0,1,1,2,2,3,3,4,4,5,5,6,6],"right_children":[2,4,6,8,10,12,14,-1,-1,-1,-1,-1,-1,-1,-1],"split_conditions":[-6.8748176E-2,-5.561906E-1,-2.9505217E-1,1.5359485E0,9.1843957E-1,-5.667219E-1,7.3796606E-1,-3.0095825E-1,-2.3421103E-2,-1.8202825E-2,-3.176554E-1,-3.7346333E-1,8.054478E-2,2.866828E-1,1.2982784E-1],"split_indices":[0,0,1,3,3,2,2,0,0,0,0,0,0,0,0],"split_type":[0,0,0,0,0,0,0,0,0,0,0,0,0,0,0],"sum_hessian":[2.4334973E3,1.1783877E3,1.2551095E3,9.265391E2,2.5184859E2,1.9243011E1,1.2358665E3,9.163662E2,1.0172962E1,1.6298825E2,8.886033E1,1.7516075E1,1.7269369E0,9.787705E2,2.5709598E2],"tree_param":{"num_deleted":"0","num_feature":"5","num_nodes":"15","size_leaf_vector":"0"}},{"base_weights":[-1.23787E-3,-1.080569E0,1.0863899E0,-1.2414516E0,-2.0201994E-1,4.8741314E-1,1.2284589E0,-2.7240258E-1,-1.9774024E-1,-3.723217E-1,7.994816E-2,-3.4199327E-1,1.9468644E-1,2.050076E-1,2.909995E-1],"categories":[],"categories_nodes":[],"categories_segments":[],"categories_sizes":[],"default_left":[0,0,0,0,0,0,0,0,0,0,0,0,0,0,0],"id":2,"left_children":[1,3,5,7,9,11,13,-1,-1,-1,-1,-1,-1,-1,-1],"loss_changes":[2.6968745E3,1.6272766E2,9.6774414E1,2.8345215E1,1.8017177E2,2.3771902E2,4.1100098E1,0E0,0E0,0E0,0E0,0E0,0E0,0E0,0E0],"parents":[2147483647,0,0,1,1,2,2,3,3,4,4,5,5,6,6],"right_children":[2,4,6,8,10,12,14,-1,-1,-1,-1,-1,-1,-1,-1],"split_conditions":[3.5619203E-2,-3.5493875E-1,4.5388013E-1,-8.8152426E-1,-5.427861E-1,-8.3445656E-1,3.6800462E-1,-2.7240258E-1,-1.9774024E-1,-3.723217E-1,7.994816E-2,-3.4199327E-1,1.9468644E-1,2.050076E-1,2.909995E-1],"split_indices":[0,0,0,0,3,3,3,0,0,0,0,0,0,0,0],"split_type":[0,0,0,0,0,0,0,0,0,0,0,0,0,0,0],"sum_hessian":[2.2953425E3,1.1520686E3,1.1432739E3,9.73403E2,1.7866562E2,2.2003139E2,9.232426E2,6.5607043E2,3.173326E2,4.6987038E1,1.3167859E2,3.9396122E1,1.8063527E2,4.8935214E2,4.3389044E2],"tree_param":{"num_deleted":"0","num_feature":"5","num_nodes":"15","size_leaf_vector":"0"}},{"base_weights":[-1.4690874E-3,-1.0428059E0,8.640687E-1,-1.2002443E0,-6.8854874E-1,2.6107877E-1,1.0777376E0,-2.4519883E-1,6.353389E-2,-3.4873333E-2,-2.566403E-1,1.3387845E-1,-2.977943E-1,1.7362188E-1,2.6351413E-1],"categories":[],"categories_nodes":[],"categories_segments":[],"categories_sizes":[],"default_left":[0,0,0,0,0,0,0,0,0,0,0,0,0,0,0],"id":3,"left_children":[1,3,5,7,9,11,13,-1,-1,-1,-1,-1,-1,-1,-1],"loss_changes":[1.9168977E3,5.301477E1,1.4935675E2,2.645929E1,9.130989E1,2.1907771E2,4.1954285E1,0E0,0E0,0E0,0E0,0E0,0E0,0E0,0E0],"parents":[2147483647,0,0,1,1,2,2,3,3,4,4,5,5,6,6],"right_children":[2,4,6,8,10,12,14,-1,-1,-1,-1,-1,-1,-1,-1],"split_conditions":[-1.9119562E-1,-7.678373E-1,4.4250506E-1,1.4373507E0,8.848476E-1,4.739268E-1,2.660335E-1,-2.4519883E-1,6.353389E-2,-3.4873333E-2,-2.566403E-1,1.3387845E-1,-2.977943E-1,1.7362188E-1,2.6351413E-1],"split_indices":[0,0,0,3,3,2,3,0,0,0,0,0,0,0,0],"split_type":[0,0,0,0,0,0,0,0,0,0,0,0,0,0,0],"sum_hessian":[2.124776E3,9.64351E2,1.1604248E3,6.6598645E2,2.9836456E2,3.0419238E2,8.562325E2,6.550663E2,1.0920183E1,1.6070232E2,1.3766226E2,2.4714677E2,5.7045612E1,4.593518E2,3.9688065E2],"tree_param":{"num_deleted":"0","num_feature":"5","num_nodes":"15","size_leaf_vector":"0"}},{"base_weights":[-2.323559E-3,-8.414208E-1,8.4308827E-1,-1.0463791E0,-3.1405237E-1,-1.5703579E0,8.7567025E-1,-1.90135E-1,-2.5475916E-1,2.31829E-2,-3.018658E-1,-3.945331E-1,8.65424E-2,1.1951369E-1,2.3696461E-1],"categories":[],"categories_nodes":[],"categories_segments":[],"categories_sizes":[],"default_left":[0,0,0,0,0,0,0,0,0,0,0,0,0,0,0],"id":4,"left_children":[1,3,5,7,9,11,13,-1,-1,-1,-1,-1,-1,-1,-1],"loss_changes":[1.3820217E3,1.053551E2,7.768646E1,1.4104309E1,1.4154396E2,1.1559128E1,8.16712E1,0E0,0E0,0E0,0E0,0E0,0E0,0E0,0E0],"parents":[2147483647,0,0,1,1,2,2,3,3,4,4,5,5,6,6],"right_children":[2,4,6,8,10,12,14,-1,-1,-1,-1,-1,-1,-1,-1],"split_conditions":[3.5619203E-2,-5.561906E-1,-2.2300375E-1,3.9805993E-1,3.3046344E-1,-7.213678E-1,-1.2533233E-1,-1.90135E-1,-2.5475916E-1,2.31829E-2,-3.018658E-1,-3.945331E-1,8.65424E-2,1.1951369E-1,2.3696461E-1],"split_indices":[0,0,1,2,2,2,3,0,0,0,0,0,0,0,0],"split_type":[0,0,0,0,0,0,0,0,0,0,0,0,0,0,0],"sum_hessian":[1.946203E3,9.7675165E2,9.6945135E2,7.026768E2,2.740748E2,1.2284767E1,9.5716656E2,4.981993E2,2.0447754E2,2.0223096E2,7.1843834E1,1.0242739E1,2.0420291E0,5.0543228E2,4.517343E2],"tree_param":{"num_deleted":"0","num_feature":"5","num_nodes":"15","size_leaf_vector":"0"}},{"base_weights":[-2.9363928E-3,-8.3549935E-1,6.6856956E-1,-6.814833E-1,-1.237177E0,-1.4236075E0,7.272175E-1,-1.8721075E-1,1.2746163E-1,-2.3521328E-1,-2.7480778E-1,-3.4211752E-1,2.0926128E-1,8.42008E-2,2.1451584E-1],"categories":[],"categories_nodes":[],"categories_segments":[],"categories_sizes":[],"default_left":[0,0,0,0,0,0,0,0,0,0,0,0,0,0,0],"id":5,"left_children":[1,3,5,7,9,11,13,-1,-1,-1,-1,-1,-1,-1,-1],"loss_changes":[9.997145E2,4.8546265E1,1.2248886E2,1.9508282E2,2.2439575E-1,2.1160595E1,1.0144272E2,0E0,0E0,0E0,0E0,0E0,0E0,0E0,0E0],"parents":[2147483647,0,0,1,1,2,2,3,3,4,4,5,5,6,6],"right_children":[2,4,6,8,10,12,14,-1,-1,-1,-1,-1,-1,-1,-1],"split_conditions":[-1.9119562E-1,3.9805993E-1,-3.5857645E-1,-7.369273E-1,-7.241744E-1,-5.834652E-1,-1.520514E-1,-1.8721075E-1,1.2746163E-1,-2.3521328E-1,-2.7480778E-1,-3.4211752E-1,2.0926128E-1,8.42008E-2,2.1451584E-1],"split_indices":[0,2,1,1,0,2,3,0,0,0,0,0,0,0,0],"split_type":[0,0,0,0,0,0,0,0,0,0,0,0,0,0,0],"sum_hessian":[1.7861718E3,7.973444E2,9.888273E2,5.7830176E2,2.1904266E2,2.6328365E1,9.624989E2,4.8497562E2,9.332613E1,1.5805984E2,6.0982815E1,2.3863129E1,2.4652357E0,5.1134027E2,4.5115866E2],"tree_param":{"num_deleted":"0","num_feature":"5","num_nodes":"15","size_leaf_vector":"0"}},{"base_weights":[-4.2782384E-3,-6.45345E-1,7.024997E-1,-4.436066E-1,-1.1682869E0,3.8847405E-1,9.446658E-1,-1.4997667E-1,1.4207143E-1,-2.3518632E-1,-6.566395E-2,1.5127735E-1,-4.4370148E-1,1.670094E-1,2.2581616E-1],"categories":[],"categories_nodes":[],"categories_segments":[],"categories_sizes":[],"default_left":[0,0,0,0,0,0,0,0,0,0,0,0,0,0,0],"id":6,"left_children":[1,3,5,7,9,11,13,-1,-1,-1,-1,-1,-1,-1,-1],"loss_changes":[7.425023E2,9.013742E1,5.890576E1,2.202649E2,1.1460876E0,3.2880493E2,7.939148E0,0E0,0E0,0E0,0E0,0E0,0E0,0E0,0E0],"parents":[2147483647,0,0,1,1,2,2,3,3,4,4,5,5,6,6],"right_children":[2,4,6,8,10,12,14,-1,-1,-1,-1,-1,-1,-1,-1],"split_conditions":[1.5298912E-1,3.2130793E-1,9.916273E-1,-4.7702402E-1,2.198837E0,7.01469E-1,7.247438E-1,-1.4997667E-1,1.4207143E-1,-2.3518632E-1,-6.566395E-2,1.5127735E-1,-4.4370148E-1,1.670094E-1,2.2581616E-1],"split_indices":[0,2,0,1,4,2,3,0,0,0,0,0,0,0,0],"split_type":[0,0,0,0,0,0,0,0,0,0,0,0,0,0,0],"sum_hessian":[1.6367451E3,8.583161E2,7.784291E2,6.207096E2,2.3760652E2,3.4006216E2,4.383669E2,4.9079617E2,1.2991342E2,2.3506717E2,2.5393486E0,2.9862787E2,4.1434277E1,2.784064E2,1.5996051E2],"tree_param":{"num_deleted":"0","num_feature":"5","num_nodes":"15","size_leaf_vector":"0"}},{"base_weights":[-3.6464464E-3,-5.2737516E-1,6.9026935E-1,-3.2460898E-1,-1.086501E0,4.7614658E-1,1.0307968E0,9.741134E-2,-1.5045871E-1,-1.5558554E-1,-2.3073499E-1,2.8335506E-2,1.7613944E-1,-2.6288077E-1,2.0923224E-1],"categories":[],"categories_nodes":[],"categories_segments":[],"categories_sizes":[],"default_left":[0,0,0,0,0,0,0,0,0,0,0,0,0,0,0],"id":7,"left_children":[1,3,5,7,9,11,13,-1,-1,-1,-1,-1,-1,-1,-1],"loss_changes":[5.413449E2,9.588609E1,4.6224915E1,2.1711435E2,3.7764893E0,5.3350983E1,1.0256378E1,0E0,0E0,0E0,0E0,0E0,0E0,0E0,0E0],"parents":[2147483647,0,0,1,1,2,2,3,3,4,4,5,5,6,6],"right_children":[2,4,6,8,10,12,14,-1,-1,-1,-1,-1,-1,-1,-1],"split_conditions":[3.226256E-1,3.2130793E-1,2.660335E-1,6.285886E-1,5.061825E-1,1.3183292E0,-1.00483924E-1,9.741134E-2,-1.5045871E-1,-1.5558554E-1,-2.3073499E-1,2.8335506E-2,1.7613944E-1,-2.6288077E-1,2.0923224E-1],"split_indices":[0,2,3,3,2,0,1,0,0,0,0,0,0,0,0],"split_type":[0,0,0,0,0,0,0,0,0,0,0,0,0,0,0],"sum_hessian":[1.4875681E3,8.478776E2,6.396905E2,6.233876E2,2.2449005E2,3.942103E2,2.4548018E2,2.1507547E2,4.0831207E2,4.238213E1,1.8210793E2,2.1653584E2,1.7767445E2,1.0474629E0,2.4443271E2],"tree_param":{"num_deleted":"0","num_feature":"5","num_nodes":"15","size_leaf_vector":"0"}},{"base_weights":[-3.6678906E-3,-5.1262516E-1,5.598237E-1,-7.956428E-1,-1.5846412E-1,6.990841E-1,1.7772481E-3,-1.6533732E-1,1.2592219E-1,-2.1952167E-1,6.500941E-2,-3.1562313E-1,1.4537981E-1,-3.7841654E-1,1.968257E-1],"categories":[],"categories_nodes":[],"categories_segments":[],"categories_sizes":[],"default_left":[0,0,0,0,0,0,0,0,0,0,0,0,0,0,0],"id":8,"left_children":[1,3,5,7,9,11,13,-1,-1,-1,-1,-1,-1,-1,-1],"loss_changes":[3.934702E2,7.2128586E1,5.0598434E1,1.8237457E1,1.4631654E2,3.415164E1,2.456452E2,0E0,0E0,0E0,0E0,0E0,0E0,0E0,0E0],"parents":[2147483647,0,0,1,1,2,2,3,3,4,4,5,5,6,6],"right_children":[2,4,6,8,10,12,14,-1,-1,-1,-1,-1,-1,-1,-1],"split_conditions":[1.5298912E-1,-8.250532E-1,8.85583E-1,1.5359485E0,-4.79534E-1,-1.7833163E-1,1.5455326E0,-1.6533732E-1,1.2592219E-1,-2.1952167E-1,6.500941E-2,-3.1562313E-1,1.4537981E-1,-3.7841654E-1,1.968257E-1],"split_indices":[0,1,2,3,3,1,0,0,0,0,0,0,0,0,0],"split_type":[0,0,0,0,0,0,0,0,0,0,0,0,0,0,0],"sum_hessian":[1.3699645E3,7.1986127E2,6.501033E2,3.9942535E2,3.204359E2,5.2006775E2,1.3003552E2,3.9132184E2,8.103508E0,1.0847338E2,2.1196252E2,5.6031547E0,5.144646E2,4.409649E1,8.5939026E1],"tree_param":{"num_deleted":"0","num_feature":"5","num_nodes":"15","size_leaf_vector":"0"}},{"base_weights":[-4.053858E-3,-4.1475758E-1,5.5010235E-1,-2.2481118E-1,-9.455493E-1,3.3378023E-1,9.4674355E-1,8.3505236E-2,-1.3671519E-1,-1.293156E-1,-2.1213269E-1,7.1590254E-3,1.3758247E-1,-2.3789552E-1,1.9309284E-1],"categories":[],"categories_nodes":[],"categories_segments":[],"categories_sizes":[],"default_left":[0,0,0,0,0,0,0,0,0,0,0,0,0,0,0],"id":9,"left_children":[1,3,5,7,9,11,13,-1,-1,-1,-1,-1,-1,-1,-1],"loss_changes":[2.8633676E2,7.263851E1,4.5633636E1,1.574845E2,5.857254E0,3.6706802E1,8.684769E0,0E0,0E0,0E0,0E0,0E0,0E0,0E0,0E0],"parents":[2147483647,0,0,1,1,2,2,3,3,4,4,5,5,6,6],"right_children":[2,4,6,8,10,12,14,-1,-1,-1,-1,-1,-1,-1,-1],"split_conditions":[3.226256E-1,2.3361729E-1,2.660335E-1,7.319275E-1,5.061825E-1,1.244876E0,-1.16937906E-1,8.3505236E-2,-1.3671519E-1,-1.293156E-1,-2.1213269E-1,7.1590254E-3,1.3758247E-1,-2.3789552E-1,1.9309284E-1],"split_indices":[0,2,3,3,2,0,1,0,0,0,0,0,0,0,0],"split_type":[0,0,0,0,0,0,0,0,0,0,0,0,0,0,0],"sum_hessian":[1.2561007E3,7.215715E2,5.3452924E2,5.324538E2,1.8911766E2,3.470791E2,1.8745016E2,2.2187976E2,3.1057404E2,5.441344E1,1.3470422E2,1.8907916E2,1.5799992E2,1.0851426E0,1.8636502E2],"tree_param":{"num_deleted":"0","num_feature":"5","num_nodes":"15","size_leaf_vector":"0"}},{"base_weights":[-4.0923664E-3,-6.5268445E-1,2.7946937E-1,-6.83953E-1,5.7365555E-1,4.2787027E-1,-3.6353144E-1,-1.7616972E-1,-8.4113434E-2,2.566088E-1,-1.8018553E-1,3.2386873E-2,1.3142811E-1,-2.628034E-1,1.7720367E-1],"categories":[],"categories_nodes":[],"categories_segments":[],"categories_sizes":[],"default_left":[0,0,0,0,0,0,0,0,0,0,0,0,0,0,0],"id":10,"left_children":[1,3,5,7,9,11,13,-1,-1,-1,-1,-1,-1,-1,-1],"loss_changes":[2.151232E2,1.4036423E1,7.7817E1,1.7646866E1,1.0979073E1,4.023938E1,1.830639E2,0E0,0E0,0E0,0E0,0E0,0E0,0E0,0E0],"parents":[2147483647,0,0,1,1,2,2,3,3,4,4,5,5,6,6],"right_children":[2,4,6,8,10,12,14,-1,-1,-1,-1,-1,-1,-1,-1],"split_conditions":[-7.369273E-1,1.5359485E0,8.9868754E-1,-1.0970175E0,-1.0015584E0,4.4250506E-1,1.6280155E0,-1.7616972E-1,-8.4113434E-2,2.566088E-1,-1.8018553E-1,3.2386873E-2,1.3142811E-1,-2.628034E-1,1.7720367E-1],"split_indices":[1,3,2,0,0,0,0,0,0,0,0,0,0,0,0],"split_type":[0,0,0,0,0,0,0,0,0,0,0,0,0,0,0],"sum_hessian":[1.1676907E3,3.548162E2,8.128745E2,3.464255E2,8.390679E0,6.6071893E2,1.5215558E2,1.9689282E2,1.4953268E2,5.7529564E0,2.6377234E0,3.0668927E2,3.5402966E2,8.6390205E1,6.576537E1],"tree_param":{"num_deleted":"0","num_feature":"5","num_nodes":"15","size_leaf_vector":"0"}},{"base_weights":[-4.4843783E-3,-5.873456E-1,2.404803E-1,-9.33454E-1,-4.6655834E-1,-3.795577E-2,5.761985E-1,5.702883E-2,-1.982053E-1,3.9968726E-1,-1.07659064E-1,-1.1938929E-1,6.755402E-2,1.6198294E-1,3.3931628E-2],"categories":[],"categories_nodes":[],"categories_segments":[],"categories_sizes":[],"default_left":[0,0,0,0,0,0,0,0,0,0,0,0,0,0,0],"id":11,"left_children":[1,3,5,7,9,11,13,-1,-1,-1,-1,-1,-1,-1,-1],"loss_changes":[1.551023E2,1.3002792E1,7.151817E1,6.046776E0,4.356619E1,8.821116E1,3.2816032E1,0E0,0E0,0E0,0E0,0E0,0E0,0E0,0E0],"parents":[2147483647,0,0,1,1,2,2,3,3,4,4,5,5,6,6],"right_children":[2,4,6,8,10,12,14,-1,-1,-1,-1,-1,-1,-1,-1],"split_conditions":[-7.369273E-1,-1.626591E0,-1.811132E-1,-7.213678E-1,-1.7659644E0,5.978714E-1,1.0110291E0,5.702883E-2,-1.982053E-1,3.9968726E-1,-1.07659064E-1,-1.1938929E-1,6.755402E-2,1.6198294E-1,3.3931628E-2],"split_indices":[1,0,3,2,1,0,3,0,0,0,0,0,0,0,0],"split_type":[0,0,0,0,0,0,0,0,0,0,0,0,0,0,0],"sum_hessian":[1.0843103E3,3.2044824E2,7.6386206E2,8.1160324E1,2.3928792E2,4.1803857E2,3.458235E2,3.4831047E0,7.7677216E1,6.0073757E0,2.3328055E2,1.6780135E2,2.5023723E2,2.1895576E2,1.2686774E2],"tree_param":{"num_deleted":"0","num_feature":"5","num_nodes":"15","size_leaf_vector":"0"}},{"base_weights":[-4.5215E-3,-3.398492E-1,3.3949035E-1,-2.1207124E-1,-9.28579E-1,1.4872032E-1,7.4992174E-1,4.6943948E-2,-1.1502552E-1,-1.8968448E-1,6.822767E-2,-8.564225E-3,1.0494709E-1,-1.9486293E-1,1.7332435E-1],"categories":[],"categories_nodes":[],"categories_segments":[],"categories_sizes":[],"default_left":[0,0,0,0,0,0,0,0,0,0,0,0,0,0,0],"id":12,"left_children":[1,3,5,7,9,11,13,-1,-1,-1,-1,-1,-1,-1,-1],"loss_changes":[1.1831767E2,3.887454E1,3.952956E1,6.956993E1,2.6497803E0,2.500567E1,3.312065E1,0E0,0E0,0E0,0E0,0E0,0E0,0E0,0E0],"parents":[2147483647,0,0,1,1,2,2,3,3,4,4,5,5,6,6],"right_children":[2,4,6,8,10,12,14,-1,-1,-1,-1,-1,-1,-1,-1],"split_conditions":[9.2765965E-2,3.9805993E-1,2.660335E-1,7.404013E-1,2.198837E0,1.3183292E0,-1.7833163E-1,4.6943948E-2,-1.1502552E-1,-1.8968448E-1,6.822767E-2,-8.564225E-3,1.0494709E-1,-1.9486293E-1,1.7332435E-1],"split_indices":[0,2,3,3,4,0,1,0,0,0,0,0,0,0,0],"split_type":[0,0,0,0,0,0,0,0,0,0,0,0,0,0,0],"sum_hessian":[1.0236677E3,5.183829E2,5.0528485E2,4.2705505E2,9.132785E1,3.4588058E2,1.5940425E2,1.916082E2,2.3544685E2,9.017168E1,1.1561764E0,2.2973839E2,1.1614222E2,9.639043E0,1.4976521E2],"tree_param":{"num_deleted":"0","num_feature":"5","num_nodes":"15","size_leaf_vector":"0"}},{"base_weights":[-4.025129E-3,-6.748872E-1,1.4362217E-1,-8.211278E-1,9.436291E-1,-2.7008034E-2,4.70956E-1,-6.951841E-2,-1.7480147E-1,-6.798207E-2,3.130488E-1,2.9067187E-2,-2.4966402E-1,5.916018E-2,1.8750197E-1],"categories":[],"categories_nodes":[],"categories_segments":[],"categories_sizes":[],"default_left":[0,0,0,0,0,0,0,0,0,0,0,0,0,0,0],"id":13,"left_children":[1,3,5,7,9,11,13,-1,-1,-1,-1,-1,-1,-1,-1],"loss_changes":[9.58636E1,4.2096634E1,4.4318836E1,3.7188797E0,1.2445998E1,1.1013757E2,2.1939716E1,0E0,0E0,0E0,0E0,0E0,0E0,0E0,0E0],"parents":[2147483647,0,0,1,1,2,2,3,3,4,4,5,5,6,6],"right_children":[2,4,6,8,10,12,14,-1,-1,-1,-1,-1,-1,-1,-1],"split_conditions":[-1.013818E0,1.1847774E0,8.5631025E-1,-4.4886503E-1,-2.2416303E0,6.231485E-1,7.247438E-1,-6.951841E-2,-1.7480147E-1,-6.798207E-2,3.130488E-1,2.9067187E-2,-2.4966402E-1,5.916018E-2,1.8750197E-1],"split_indices":[0,3,0,2,1,2,3,0,0,0,0,0,0,0,0],"split_type":[0,0,0,0,0,0,0,0,0,0,0,0,0,0,0],"sum_hessian":[9.6584235E2,1.7357991E2,7.922624E2,1.5964766E2,1.3932252E1,5.213923E2,2.7087012E2,1.679771E1,1.4284995E2,4.6936884E0,9.238564E0,4.5768732E2,6.3704987E1,1.9812386E2,7.274627E1],"tree_param":{"num_deleted":"0","num_feature":"5","num_nodes":"15","size_leaf_vector":"0"}},{"base_weights":[-5.2362517E-3,-4.9786308E-1,1.5182605E-1,-5.7834697E-1,1.03178866E-1,2.092316E-1,-8.330178E-1,-1.6048004E-1,-5.9316874E-2,1.7357485E-1,-1.3528326E-1,1.2881877E-2,9.708494E-2,-3.2204613E-1,1.4886723E-1],"categories":[],"categories_nodes":[],"categories_segments":[],"categories_sizes":[],"default_left":[0,0,0,0,0,0,0,0,0,0,0,0,0,0,0],"id":14,"left_children":[1,3,5,7,9,11,13,-1,-1,-1,-1,-1,-1,-1,-1],"loss_changes":[7.132028E1,1.0839165E1,3.969027E1,1.2177849E1,1.6780985E1,2.6418411E1,4.8640404E1,0E0,0E0,0E0,0E0,0E0,0E0,0E0,0E0],"parents":[2147483647,0,0,1,1,2,2,3,3,4,4,5,5,6,6],"right_children":[2,4,6,8,10,12,14,-1,-1,-1,-1,-1,-1,-1,-1],"split_conditions":[-8.904058E-1,1.2552693E0,1.3182111E0,-1.1936591E0,-9.337638E-1,8.807903E-1,1.9274597E0,-1.6048004E-1,-5.9316874E-2,1.7357485E-1,-1.3528326E-1,1.2881877E-2,9.708494E-2,-3.2204613E-1,1.4886723E-1],"split_indices":[1,3,2,0,0,0,0,0,0,0,0,0,0,0,0],"split_type":[0,0,0,0,0,0,0,0,0,0,0,0,0,0,0],"sum_hessian":[9.19794E2,2.2183557E2,6.9795844E2,1.956715E2,2.6164078E1,6.6026013E2,3.769835E1,1.07968704E2,8.770279E1,1.31510935E1,1.3012984E1,4.3395068E2,2.2630943E2,2.5240635E1,1.2457713E1],"tree_param":{"num_deleted":"0","num_feature":"5","num_nodes":"15","size_leaf_vector":"0"}},{"base_weights":[-5.933614E-3,-5.672448E-1,1.0094728E-1,-7.2009814E-1,5.341602E-1,2.2633108E-1,-3.1905273E-1,-4.4563062E-2,-1.56689E-1,-1.7266253E-1,1.5779991E-1,-9.310179E-3,1.40218E-1,-1.8329692E-1,1.8121664E-1],"categories":[],"categories_nodes":[],"categories_segments":[],"categories_sizes":[],"default_left":[0,0,0,0,0,0,0,0,0,0,0,0,0,0,0],"id":15,"left_children":[1,3,5,7,9,11,13,-1,-1,-1,-1,-1,-1,-1,-1],"loss_changes":[5.2893555E1,2.4126507E1,3.9077152E1,3.7398987E0,7.0061674E0,7.4004944E1,1.2576937E2,0E0,0E0,0E0,0E0,0E0,0E0,0E0,0E0],"parents":[2147483647,0,0,1,1,2,2,3,3,4,4,5,5,6,6],"right_children":[2,4,6,8,10,12,14,-1,-1,-1,-1,-1,-1,-1,-1],"split_conditions":[-1.013818E0,1.1847774E0,9.776391E-1,-4.4886503E-1,-2.39132E0,-1.0032405E-1,7.3559806E-2,-4.4563062E-2,-1.56689E-1,-1.7266253E-1,1.5779991E-1,-9.310179E-3,1.40218E-1,-1.8329692E-1,1.8121664E-1],"split_indices":[0,3,3,2,0,3,1,0,0,0,0,0,0,0,0],"split_type":[0,0,0,0,0,0,0,0,0,0,0,0,0,0,0],"sum_hessian":[8.79701E2,1.4002391E2,7.396771E2,1.2326356E2,1.6760353E1,5.6998035E2,1.6969675E2,1.4438264E1,1.0882529E2,2.2167265E0,1.4543627E1,3.6251556E2,2.074648E2,1.1424005E2,5.54567E1],"tree_param":{"num_deleted":"0","num_feature":"5","num_nodes":"15","size_leaf_vector":"0"}},{"base_weights":[-6.2560327E-3,-4.894959E-1,8.913881E-2,-6.324576E-1,5.9435475E-1,1.8848911E-1,-3.326176E-1,-5.108427E-2,-1.4379267E-1,-1.14292584E-1,2.212621E-1,-6.4931526E-3,1.1476401E-1,-1.8569857E-1,1.7258164E-1],"categories":[],"categories_nodes":[],"categories_segments":[],"categories_sizes":[],"default_left":[0,0,0,0,0,0,0,0,0,0,0,0,0,0,0],"id":16,"left_children":[1,3,5,7,9,11,13,-1,-1,-1,-1,-1,-1,-1,-1],"loss_changes":[3.8826916E1,2.1891258E1,2.9538692E1,3.8332596E0,1.0597391E1,4.8547127E1,9.660091E1,0E0,0E0,0E0,0E0,0E0,0E0,0E0,0E0],"parents":[2147483647,0,0,1,1,2,2,3,3,4,4,5,5,6,6],"right_children":[2,4,6,8,10,12,14,-1,-1,-1,-1,-1,-1,-1,-1],"split_conditions":[-9.5427954E-1,1.2246699E0,1.0219371E0,-4.350333E-1,-2.2416303E0,-1.0032405E-1,7.3559806E-2,-5.108427E-2,-1.4379267E-1,-1.14292584E-1,2.212621E-1,-6.4931526E-3,1.1476401E-1,-1.8569857E-1,1.7258164E-1],"split_indices":[0,3,3,2,1,3,1,0,0,0,0,0,0,0,0],"split_type":[0,0,0,0,0,0,0,0,0,0,0,0,0,0,0],"sum_hessian":[8.403116E2,1.3785431E2,7.024573E2,1.2215795E2,1.5696364E1,5.689797E2,1.3347758E2,2.353464E1,9.862331E1,4.754121E0,1.0942244E1,3.6220267E2,2.06777E2,8.922788E1,4.4249695E1],"tree_param":{"num_deleted":"0","num_feature":"5","num_nodes":"15","size_leaf_vector":"0"}},{"base_weights":[-6.4135157E-3,-1.7220175E-1,2.1982162E-1,-7.62388E-2,-8.723505E-1,3.5043237E-1,-2.6746693E-1,3.2843657E-2,-1.0436751E-1,3.8245004E-2,-1.809474E-1,4.722554E-2,1.4353348E-1,-2.8868365E-1,1.349691E-1],"categories":[],"categories_nodes":[],"categories_segments":[],"categories_sizes":[],"default_left":[0,0,0,0,0,0,0,0,0,0,0,0,0,0,0],"id":17,"left_children":[1,3,5,7,9,11,13,-1,-1,-1,-1,-1,-1,-1,-1],"loss_changes":[3.0383389E1,3.1341782E1,2.1898178E1,4.4253334E1,2.110649E0,1.1189846E1,8.184892E1,0E0,0E0,0E0,0E0,0E0,0E0,0E0,0E0],"parents":[2147483647,0,0,1,1,2,2,3,3,4,4,5,5,6,6],"right_children":[2,4,6,8,10,12,14,-1,-1,-1,-1,-1,-1,-1,-1],"split_conditions":[3.3570737E-1,5.061825E-1,9.513625E-1,9.3154484E-1,-2.455332E0,6.378331E-1,1.6280155E0,3.2843657E-2,-1.0436751E-1,3.8245004E-2,-1.809474E-1,4.722554E-2,1.4353348E-1,-2.8868365E-1,1.349691E-1],"split_indices":[0,2,2,3,1,3,0,0,0,0,0,0,0,0,0],"split_type":[0,0,0,0,0,0,0,0,0,0,0,0,0,0,0],"sum_hessian":[8.080606E2,4.664664E2,3.4159418E2,4.1121396E2,5.5252426E1,2.6960995E2,7.198425E1,2.674969E2,1.4371707E2,1.4878186E0,5.3764606E1,2.0686472E2,6.274522E1,3.1785725E1,4.0198524E1],"tree_param":{"num_deleted":"0","num_feature":"5","num_nodes":"15","size_leaf_vector":"0"}},{"base_weights":[-5.861571E-3,-4.3608728E-1,6.724618E-2,-6.536282E-1,2.4988891E-1,1.0204897E-1,-7.094833E-1,-1.5544596E-1,-4.7165703E-2,1.7560844E-1,-5.709029E-2,3.8488884E-2,-5.4081626E-2,-2.9491353E-1,1.2689616E-1],"categories":[],"categories_nodes":[],"categories_segments":[],"categories_sizes":[],"default_left":[0,0,0,0,0,0,0,0,0,0,0,0,0,0,0],"id":18,"left_children":[1,3,5,7,9,11,13,-1,-1,-1,-1,-1,-1,-1,-1],"loss_changes":[2.4366386E1,1.6954535E1,1.7974396E1,4.2425995E0,9.604197E0,2.1421953E1,3.026757E1,0E0,0E0,0E0,0E0,0E0,0E0,0E0,0E0],"parents":[2147483647,0,0,1,1,2,2,3,3,4,4,5,5,6,6],"right_children":[2,4,6,8,10,12,14,-1,-1,-1,-1,-1,-1,-1,-1],"split_conditions":[-1.013818E0,1.0391877E0,1.3182111E0,-1.2935207E0,-1.7473967E0,9.776391E-1,1.9274597E0,-1.5544596E-1,-4.7165703E-2,1.7560844E-1,-5.709029E-2,3.8488884E-2,-5.4081626E-2,-2.9491353E-1,1.2689616E-1],"split_indices":[0,3,2,1,1,3,0,0,0,0,0,0,0,0,0],"split_type":[0,0,0,0,0,0,0,0,0,0,0,0,0,0,0],"sum_hessian":[7.727637E2,1.1152057E2,6.612431E2,8.470543E1,2.6815136E1,6.3371686E2,2.7526237E1,6.470334E1,2.000209E1,1.20434885E1,1.4771648E1,5.1034042E2,1.2337645E2,1.7478815E1,1.00474205E1],"tree_param":{"num_deleted":"0","num_feature":"5","num_nodes":"15","size_leaf_vector":"0"}},{"base_weights":[-6.4479546E-3,-7.87387E-2,3.6371672E-1,2.9809134E-2,-1.0190116E0,-5.5642635E-1,4.232419E-1,3.0354057E-2,-6.0810424E-2,-2.1182802E-1,1.4752905E-1,-1.9619152E-1,1.2888889E-1,6.539448E-2,1.6145748E-1],"categories":[],"categories_nodes":[],"categories_segments":[],"categories_sizes":[],"default_left":[0,0,0,0,0,0,0,0,0,0,0,0,0,0,0],"id":19,"left_children":[1,3,5,7,9,11,13,-1,-1,-1,-1,-1,-1,-1,-1],"loss_changes":[2.0196512E1,6.4469376E1,6.9897804E0,2.3132679E1,5.3893814E0,4.672308E0,4.0392704E0,0E0,0E0,0E0,0E0,0E0,0E0,0E0,0E0],"parents":[2147483647,0,0,1,1,2,2,3,3,4,4,5,5,6,6],"right_children":[2,4,6,8,10,12,14,-1,-1,-1,-1,-1,-1,-1,-1],"split_conditions":[1.244876E0,7.4945855E-1,-1.5195134E0,9.3154484E-1,1.9381905E0,9.083738E-1,8.544829E-1,3.0354057E-2,-6.0810424E-2,-2.1182802E-1,1.4752905E-1,-1.9619152E-1,1.2888889E-1,6.539448E-2,1.6145748E-1],"split_indices":[0,2,4,3,4,3,3,0,0,0,0,0,0,0,0],"split_type":[0,0,0,0,0,0,0,0,0,0,0,0,0,0,0],"sum_hessian":[7.52672E2,6.3035504E2,1.2231694E2,5.659845E2,6.43706E1,6.924832E0,1.15392105E2,4.1494754E2,1.5103694E2,6.3321175E1,1.0494202E0,5.251465E0,1.673367E0,9.374439E1,2.1647715E1],"tree_param":{"num_deleted":"0","num_feature":"5","num_nodes":"15","size_leaf_vector":"0"}}]},"name":"gbtree"},"learner_model_param":{"base_score":"5E-1","num_class":"0","num_feature":"5","num_target":"1"},"objective":{"name":"binary:logistic","reg_loss_param":{"scale_pos_weight":"1"}}},"version":[1,6,1]}